FANN_FLO_2.1
num_layers=3
learning_rate=0.700000
connection_rate=1.000000
network_type=0
learning_momentum=0.000000
training_algorithm=2
train_error_function=1
train_stop_function=0
cascade_output_change_fraction=0.010000
quickprop_decay=-0.000100
quickprop_mu=1.750000
rprop_increase_factor=1.200000
rprop_decrease_factor=0.500000
rprop_delta_min=0.000000
rprop_delta_max=50.000000
rprop_delta_zero=0.100000
cascade_output_stagnation_epochs=12
cascade_candidate_change_fraction=0.010000
cascade_candidate_stagnation_epochs=12
cascade_max_out_epochs=150
cascade_min_out_epochs=50
cascade_max_cand_epochs=150
cascade_min_cand_epochs=50
cascade_num_candidate_groups=2
bit_fail_limit=3.49999994039535520000e-001
cascade_candidate_limit=1.00000000000000000000e+003
cascade_weight_multiplier=4.00000005960464480000e-001
cascade_activation_functions_count=10
cascade_activation_functions=3 5 7 8 10 11 14 15 16 17 
cascade_activation_steepnesses_count=4
cascade_activation_steepnesses=2.50000000000000000000e-001 5.00000000000000000000e-001 7.50000000000000000000e-001 1.00000000000000000000e+000 
layer_sizes=4 11 5 
scale_included=0
neurons (num_inputs, activation_function, activation_steepness)=(0, 0, 0.00000000000000000000e+000) (0, 0, 0.00000000000000000000e+000) (0, 0, 0.00000000000000000000e+000) (0, 0, 0.00000000000000000000e+000) (4, 5, 5.00000000000000000000e-001) (4, 5, 5.00000000000000000000e-001) (4, 5, 5.00000000000000000000e-001) (4, 5, 5.00000000000000000000e-001) (4, 5, 5.00000000000000000000e-001) (4, 5, 5.00000000000000000000e-001) (4, 5, 5.00000000000000000000e-001) (4, 5, 5.00000000000000000000e-001) (4, 5, 5.00000000000000000000e-001) (4, 5, 5.00000000000000000000e-001) (0, 5, 0.00000000000000000000e+000) (11, 5, 5.00000000000000000000e-001) (11, 5, 5.00000000000000000000e-001) (11, 5, 5.00000000000000000000e-001) (11, 5, 5.00000000000000000000e-001) (0, 5, 0.00000000000000000000e+000) 
connections (connected_to_neuron, weight)=(0, 5.36342811584472660000e+000) (1, 8.53358089923858640000e-001) (2, 6.14930093288421630000e-001) (3, -8.26630592346191410000e-002) (0, 1.17693257331848140000e+000) (1, 1.65830898284912110000e+000) (2, -4.49741303920745850000e-001) (3, -2.74510771036148070000e-001) (0, 6.39491510391235350000e+000) (1, 1.93330764770507810000e+000) (2, -1.47793114185333250000e-001) (3, -2.06629812717437740000e-001) (0, -2.91378307342529300000e+000) (1, 7.55625963211059570000e+000) (2, -1.12115740776062010000e+000) (3, -4.53983831405639650000e+000) (0, 4.23152804374694820000e-001) (1, -6.90224617719650270000e-002) (2, 2.61674213409423830000e+000) (3, -3.89134883880615230000e-002) (0, 2.20888900756835940000e+000) (1, 1.98278754949569700000e-001) (2, 7.28379368782043460000e-001) (3, 1.11770534515380860000e+000) (0, 4.52325010299682620000e+000) (1, 6.09921836853027340000e+000) (2, -1.28975832462310790000e+000) (3, -2.68147277832031250000e+000) (0, 2.85553932189941410000e+000) (1, 8.82607555389404300000e+000) (2, -1.93060016632080080000e+000) (3, -2.47215461730957030000e+000) (0, 7.39535617828369140000e+000) (1, -1.04398503899574280000e-001) (2, 1.91044473648071290000e+000) (3, -5.70540845394134520000e-001) (0, 1.86060404777526860000e+000) (1, -6.00930452346801760000e-001) (2, -2.08792638778686520000e+000) (3, -1.95212030410766600000e+000) (4, 5.66221380233764650000e+000) (5, -1.66490495204925540000e-001) (6, -1.66310024261474610000e+000) (7, 9.13616120815277100000e-002) (8, 7.92995095252990720000e-001) (9, -1.89588904380798340000e-001) (10, -1.45041912794113160000e-001) (11, 2.75789201259613040000e-001) (12, -2.33665037155151370000e+000) (13, -4.32089447975158690000e-001) (14, 7.05673575401306150000e-001) (4, 1.87617731094360350000e+000) (5, 1.74615669250488280000e+000) (6, -9.20233309268951420000e-001) (7, -9.16251361370086670000e-001) (8, 8.74487042427062990000e-001) (9, -1.33149957656860350000e+000) (10, -1.61865723133087160000e+000) (11, 1.65139770507812500000e+000) (12, -6.27990067005157470000e-001) (13, 6.73182189464569090000e-001) (14, 5.42881071567535400000e-001) (4, 1.00033330917358400000e+000) (5, -2.12739324569702150000e+000) (6, -2.96068906784057620000e-001) (7, -7.95278698205947880000e-002) (8, -1.84450459480285640000e+000) (9, 2.18508028984069820000e+000) (10, 7.13370293378829960000e-002) (11, 2.92377322912216190000e-001) (12, -7.45653927326202390000e-001) (13, -9.23311173915863040000e-001) (14, -1.67218935489654540000e+000) (4, -1.88125228881835940000e+000) (5, -2.14855480194091800000e+000) (6, 1.29814493656158450000e+000) (7, -2.11326897144317630000e-001) (8, -4.41178131103515620000e+000) (9, 5.56903219223022460000e+000) (10, -1.24372512102127080000e-001) (11, 1.55030384659767150000e-001) (12, 9.32228267192840580000e-002) (13, -3.05756092071533200000e+000) (14, -6.63778066635131840000e+000) 
